digraph Tree {
node [shape=box, style="filled, rounded", color="black", fontname=helvetica] ;
edge [fontname=helvetica] ;
0 [label=<A9_t &le; 0.5<br/>entropy = 0.981<br/>samples = 343<br/>value = [144, 199]>, fillcolor="#399de546"] ;
1 [label=<A4_l &le; 0.5<br/>entropy = 0.324<br/>samples = 169<br/>value = [10, 159]>, fillcolor="#399de5ef"] ;
0 -> 1 [labeldistance=2.5, labelangle=45, headlabel="True"] ;
2 [label=<A14 &le; 421.0<br/>entropy = 0.277<br/>samples = 167<br/>value = [8, 159]>, fillcolor="#399de5f2"] ;
1 -> 2 ;
3 [label=<A2 &le; 37.54<br/>entropy = 0.204<br/>samples = 157<br/>value = [5, 152]>, fillcolor="#399de5f7"] ;
2 -> 3 ;
4 [label=<entropy = 0.111<br/>samples = 135<br/>value = [2, 133]>, fillcolor="#399de5fb"] ;
3 -> 4 ;
13 [label=<A2 &le; 37.915<br/>entropy = 0.575<br/>samples = 22<br/>value = [3, 19]>, fillcolor="#399de5d7"] ;
3 -> 13 ;
14 [label=<entropy = 0.0<br/>samples = 1<br/>value = [1, 0]>, fillcolor="#e58139ff"] ;
13 -> 14 ;
15 [label=<A7_bb &le; 0.5<br/>entropy = 0.454<br/>samples = 21<br/>value = [2, 19]>, fillcolor="#399de5e4"] ;
13 -> 15 ;
16 [label=<A15 &le; 1595.0<br/>entropy = 0.286<br/>samples = 20<br/>value = [1, 19]>, fillcolor="#399de5f2"] ;
15 -> 16 ;
17 [label=<entropy = 0.0<br/>samples = 19<br/>value = [0, 19]>, fillcolor="#399de5ff"] ;
16 -> 17 ;
18 [label=<entropy = 0.0<br/>samples = 1<br/>value = [1, 0]>, fillcolor="#e58139ff"] ;
16 -> 18 ;
19 [label=<entropy = 0.0<br/>samples = 1<br/>value = [1, 0]>, fillcolor="#e58139ff"] ;
15 -> 19 ;
20 [label=<A12_f &le; 0.5<br/>entropy = 0.881<br/>samples = 10<br/>value = [3, 7]>, fillcolor="#399de592"] ;
2 -> 20 ;
21 [label=<A7_bb &le; 0.5<br/>entropy = 1.0<br/>samples = 6<br/>value = [3, 3]>, fillcolor="#e5813900"] ;
20 -> 21 ;
22 [label=<entropy = 0.0<br/>samples = 2<br/>value = [2, 0]>, fillcolor="#e58139ff"] ;
21 -> 22 ;
23 [label=<A3 &le; 0.668<br/>entropy = 0.811<br/>samples = 4<br/>value = [1, 3]>, fillcolor="#399de5aa"] ;
21 -> 23 ;
24 [label=<entropy = 0.0<br/>samples = 1<br/>value = [1, 0]>, fillcolor="#e58139ff"] ;
23 -> 24 ;
25 [label=<entropy = 0.0<br/>samples = 3<br/>value = [0, 3]>, fillcolor="#399de5ff"] ;
23 -> 25 ;
26 [label=<entropy = 0.0<br/>samples = 4<br/>value = [0, 4]>, fillcolor="#399de5ff"] ;
20 -> 26 ;
27 [label=<entropy = 0.0<br/>samples = 2<br/>value = [2, 0]>, fillcolor="#e58139ff"] ;
1 -> 27 ;
28 [label=<A15 &le; 235.0<br/>entropy = 0.778<br/>samples = 174<br/>value = [134, 40]>, fillcolor="#e58139b3"] ;
0 -> 28 [labeldistance=2.5, labelangle=-45, headlabel="False"] ;
29 [label=<A10_f &le; 0.5<br/>entropy = 0.952<br/>samples = 105<br/>value = [66, 39]>, fillcolor="#e5813968"] ;
28 -> 29 ;
30 [label=<A14 &le; 72.5<br/>entropy = 0.715<br/>samples = 56<br/>value = [45, 11]>, fillcolor="#e58139c1"] ;
29 -> 30 ;
31 [label=<entropy = 0.0<br/>samples = 15<br/>value = [15, 0]>, fillcolor="#e58139ff"] ;
30 -> 31 ;
32 [label=<A2 &le; 48.915<br/>entropy = 0.839<br/>samples = 41<br/>value = [30, 11]>, fillcolor="#e58139a1"] ;
30 -> 32 ;
33 [label=<A14 &le; 355.0<br/>entropy = 0.742<br/>samples = 38<br/>value = [30, 8]>, fillcolor="#e58139bb"] ;
32 -> 33 ;
34 [label=<A11 &le; 1.5<br/>entropy = 0.837<br/>samples = 30<br/>value = [22, 8]>, fillcolor="#e58139a2"] ;
33 -> 34 ;
35 [label=<entropy = 0.0<br/>samples = 7<br/>value = [7, 0]>, fillcolor="#e58139ff"] ;
34 -> 35 ;
36 [label=<A15 &le; 80.5<br/>entropy = 0.932<br/>samples = 23<br/>value = [15, 8]>, fillcolor="#e5813977"] ;
34 -> 36 ;
37 [label=<A14 &le; 190.5<br/>entropy = 0.863<br/>samples = 21<br/>value = [15, 6]>, fillcolor="#e5813999"] ;
36 -> 37 ;
38 [label=<A14 &le; 77.5<br/>entropy = 0.672<br/>samples = 17<br/>value = [14, 3]>, fillcolor="#e58139c8"] ;
37 -> 38 ;
39 [label=<entropy = 0.0<br/>samples = 1<br/>value = [0, 1]>, fillcolor="#399de5ff"] ;
38 -> 39 ;
40 [label=<entropy = 0.544<br/>samples = 16<br/>value = [14, 2]>, fillcolor="#e58139db"] ;
38 -> 40 ;
41 [label=<A2 &le; 39.46<br/>entropy = 0.811<br/>samples = 4<br/>value = [1, 3]>, fillcolor="#399de5aa"] ;
37 -> 41 ;
42 [label=<entropy = 0.0<br/>samples = 3<br/>value = [0, 3]>, fillcolor="#399de5ff"] ;
41 -> 42 ;
43 [label=<entropy = 0.0<br/>samples = 1<br/>value = [1, 0]>, fillcolor="#e58139ff"] ;
41 -> 43 ;
44 [label=<entropy = 0.0<br/>samples = 2<br/>value = [0, 2]>, fillcolor="#399de5ff"] ;
36 -> 44 ;
45 [label=<entropy = 0.0<br/>samples = 8<br/>value = [8, 0]>, fillcolor="#e58139ff"] ;
33 -> 45 ;
46 [label=<entropy = 0.0<br/>samples = 3<br/>value = [0, 3]>, fillcolor="#399de5ff"] ;
32 -> 46 ;
47 [label=<A7_h &le; 0.5<br/>entropy = 0.985<br/>samples = 49<br/>value = [21, 28]>, fillcolor="#399de540"] ;
29 -> 47 ;
48 [label=<A2 &le; 28.5<br/>entropy = 0.918<br/>samples = 39<br/>value = [13, 26]>, fillcolor="#399de57f"] ;
47 -> 48 ;
49 [label=<A14 &le; 120.0<br/>entropy = 0.993<br/>samples = 20<br/>value = [11, 9]>, fillcolor="#e581392e"] ;
48 -> 49 ;
50 [label=<entropy = 0.0<br/>samples = 8<br/>value = [8, 0]>, fillcolor="#e58139ff"] ;
49 -> 50 ;
51 [label=<A2 &le; 25.835<br/>entropy = 0.811<br/>samples = 12<br/>value = [3, 9]>, fillcolor="#399de5aa"] ;
49 -> 51 ;
52 [label=<entropy = 0.0<br/>samples = 7<br/>value = [0, 7]>, fillcolor="#399de5ff"] ;
51 -> 52 ;
53 [label=<A2 &le; 26.665<br/>entropy = 0.971<br/>samples = 5<br/>value = [3, 2]>, fillcolor="#e5813955"] ;
51 -> 53 ;
54 [label=<entropy = 0.0<br/>samples = 2<br/>value = [2, 0]>, fillcolor="#e58139ff"] ;
53 -> 54 ;
55 [label=<A6_w &le; 0.5<br/>entropy = 0.918<br/>samples = 3<br/>value = [1, 2]>, fillcolor="#399de57f"] ;
53 -> 55 ;
56 [label=<entropy = 0.0<br/>samples = 2<br/>value = [0, 2]>, fillcolor="#399de5ff"] ;
55 -> 56 ;
57 [label=<entropy = 0.0<br/>samples = 1<br/>value = [1, 0]>, fillcolor="#e58139ff"] ;
55 -> 57 ;
58 [label=<A6_w &le; 0.5<br/>entropy = 0.485<br/>samples = 19<br/>value = [2, 17]>, fillcolor="#399de5e1"] ;
48 -> 58 ;
59 [label=<A6_aa &le; 0.5<br/>entropy = 0.31<br/>samples = 18<br/>value = [1, 17]>, fillcolor="#399de5f0"] ;
58 -> 59 ;
60 [label=<entropy = 0.0<br/>samples = 15<br/>value = [0, 15]>, fillcolor="#399de5ff"] ;
59 -> 60 ;
61 [label=<A13_g &le; 0.5<br/>entropy = 0.918<br/>samples = 3<br/>value = [1, 2]>, fillcolor="#399de57f"] ;
59 -> 61 ;
62 [label=<entropy = 0.0<br/>samples = 1<br/>value = [1, 0]>, fillcolor="#e58139ff"] ;
61 -> 62 ;
63 [label=<entropy = 0.0<br/>samples = 2<br/>value = [0, 2]>, fillcolor="#399de5ff"] ;
61 -> 63 ;
64 [label=<entropy = 0.0<br/>samples = 1<br/>value = [1, 0]>, fillcolor="#e58139ff"] ;
58 -> 64 ;
65 [label=<A8 &le; 8.98<br/>entropy = 0.722<br/>samples = 10<br/>value = [8, 2]>, fillcolor="#e58139bf"] ;
47 -> 65 ;
66 [label=<entropy = 0.0<br/>samples = 8<br/>value = [8, 0]>, fillcolor="#e58139ff"] ;
65 -> 66 ;
67 [label=<entropy = 0.0<br/>samples = 2<br/>value = [0, 2]>, fillcolor="#399de5ff"] ;
65 -> 67 ;
68 [label=<entropy = 0.109<br/>samples = 69<br/>value = [68, 1]>, fillcolor="#e58139fb"] ;
28 -> 68 ;
}