digraph Tree {
node [shape=box, style="filled, rounded", color="black", fontname=helvetica] ;
edge [fontname=helvetica] ;
0 [label=<mse = 1.0<br/>samples = 379<br/>value = -0.0>, fillcolor="#e5813950"] ;
}