digraph Tree {
node [shape=box, style="filled, rounded", color="black", fontname=helvetica] ;
edge [fontname=helvetica] ;
0 [label=<Shell &le; 0.144<br/>entropy = 3.582<br/>samples = 2923<br/>value = [452, 355, 188, 137, 88, 75, 45, 35, 34, 24, 1, 13, 10, 5<br/>5, 1, 1, 2, 9, 37, 88, 178, 259, 390, 491]>, fillcolor="#e5563904"] ;
1 [label=<Shell &le; 0.053<br/>entropy = 2.957<br/>samples = 809<br/>value = [50, 21, 12, 7, 1, 3, 2, 0, 1, 0, 1, 0, 0, 0, 0, 0, 0<br/>0, 9, 37, 88, 166, 207, 130, 74]>, fillcolor="#e5396f10"] ;
0 -> 1 [labeldistance=2.5, labelangle=45, headlabel="True"] ;
2 [label=<Shell &le; 0.027<br/>entropy = 2.363<br/>samples = 217<br/>value = [1, 0, 0, 0, 0, 0, 0, 0, 0, 0, 1, 0, 0, 0, 0, 0, 0, 0<br/>9, 36, 73, 58, 28, 9, 2]>, fillcolor="#e539c018"] ;
1 -> 2 ;
3 [label=<entropy = 1.874<br/>samples = 82<br/>value = [0, 0, 0, 0, 0, 0, 0, 0, 0, 0, 1, 0, 0, 0, 0, 0, 0, 0<br/>9, 33, 28, 11, 0, 0, 0]>, fillcolor="#df39e518"] ;
2 -> 3 ;
4 [label=<entropy = 2.054<br/>samples = 135<br/>value = [1, 0, 0, 0, 0, 0, 0, 0, 0, 0, 0, 0, 0, 0, 0, 0, 0, 0<br/>0, 3, 45, 47, 28, 9, 2]>, fillcolor="#e5399806"] ;
2 -> 4 ;
5 [label=<entropy = 2.713<br/>samples = 592<br/>value = [49, 21, 12, 7, 1, 3, 2, 0, 1, 0, 0, 0, 0, 0, 0, 0, 0<br/>0, 0, 1, 15, 108, 179, 121, 72]>, fillcolor="#e5396f1f"] ;
1 -> 5 ;
8 [label=<Shell &le; 0.29<br/>entropy = 3.307<br/>samples = 2114<br/>value = [402, 334, 176, 130, 87, 72, 43, 35, 33, 24, 0, 13, 10, 5<br/>5, 1, 1, 2, 0, 0, 0, 12, 52, 260, 417]>, fillcolor="#e5563902"] ;
0 -> 8 [labeldistance=2.5, labelangle=-45, headlabel="False"] ;
9 [label=<entropy = 3.062<br/>samples = 1121<br/>value = [197, 125, 64, 52, 36, 27, 13, 11, 8, 6, 0, 2, 3, 2, 2, 0<br/>0, 0, 0, 0, 0, 10, 51, 237, 275]>, fillcolor="#e556390b"] ;
8 -> 9 ;
12 [label=<Shucked &le; 0.445<br/>entropy = 3.296<br/>samples = 993<br/>value = [205, 209, 112, 78, 51, 45, 30, 24, 25, 18, 0, 11, 7, 3, 3<br/>1, 1, 2, 0, 0, 0, 2, 1, 23, 142]>, fillcolor="#e5a93901"] ;
8 -> 12 ;
13 [label=<entropy = 3.744<br/>samples = 199<br/>value = [27, 18, 19, 21, 19, 19, 16, 9, 8, 8, 0, 6, 2, 0, 3, 0<br/>1, 1, 0, 0, 0, 2, 0, 4, 16]>, fillcolor="#e5813909"] ;
12 -> 13 ;
14 [label=<entropy = 3.08<br/>samples = 794<br/>value = [178, 191, 93, 57, 32, 26, 14, 15, 17, 10, 0, 5, 5, 3, 0<br/>1, 0, 1, 0, 0, 0, 0, 1, 19, 126]>, fillcolor="#e5a93905"] ;
12 -> 14 ;
}