digraph Tree {
node [shape=box, style="filled, rounded", color="black", fontname=helvetica] ;
edge [fontname=helvetica] ;
0 [label=<Shell &le; 0.144<br/>entropy = 3.582<br/>samples = 2923<br/>value = [452, 355, 188, 137, 88, 75, 45, 35, 34, 24, 1, 13, 10, 5<br/>5, 1, 1, 2, 9, 37, 88, 178, 259, 390, 491]>, fillcolor="#e5563904"] ;
1 [label=<entropy = 2.957<br/>samples = 809<br/>value = [50, 21, 12, 7, 1, 3, 2, 0, 1, 0, 1, 0, 0, 0, 0, 0, 0<br/>0, 9, 37, 88, 166, 207, 130, 74]>, fillcolor="#e5396f10"] ;
0 -> 1 [labeldistance=2.5, labelangle=45, headlabel="True"] ;
8 [label=<entropy = 3.307<br/>samples = 2114<br/>value = [402, 334, 176, 130, 87, 72, 43, 35, 33, 24, 0, 13, 10, 5<br/>5, 1, 1, 2, 0, 0, 0, 12, 52, 260, 417]>, fillcolor="#e5563902"] ;
0 -> 8 [labeldistance=2.5, labelangle=-45, headlabel="False"] ;
}